<?xml version="1.0"?>
<opencv_storage>
<stage1>
  <maxWeakCount>9</maxWeakCount>
  <stageThreshold>-3.3391693234443665e-01</stageThreshold>
  <weakClassifiers>
    <_>
      <internalNodes>
        0 -1 93031 4.4581484980881214e-03</internalNodes>
      <leafValues>
        -5.7260727882385254e-01 8.8071066141128540e-01</leafValues></_>
    <_>
      <internalNodes>
        0 -1 9206 -1.0062226094305515e-02</internalNodes>
      <leafValues>
        5.4513126611709595e-01 -9.0987092256546021e-01</leafValues></_>
    <_>
      <internalNodes>
        0 -1 43354 -2.1559117361903191e-02</internalNodes>
      <leafValues>
        9.3183791637420654e-01 -4.8683860898017883e-01</leafValues></_>
    <_>
      <internalNodes>
        0 -1 108502 -6.4194146543741226e-03</internalNodes>
      <leafValues>
        9.6589106321334839e-01 -4.1876599192619324e-01</leafValues></_>
    <_>
      <internalNodes>
        0 -1 83315 -8.6270458996295929e-03</internalNodes>
      <leafValues>
        -9.9791824817657471e-01 5.0868654251098633e-01</leafValues></_>
    <_>
      <internalNodes>
        0 -1 116031 -5.4693020880222321e-02</internalNodes>
      <leafValues>
        9.7366273403167725e-01 -4.7405341267585754e-01</leafValues></_>
    <_>
      <internalNodes>
        0 -1 102964 -3.3129164949059486e-03</internalNodes>
      <leafValues>
        9.4010627269744873e-01 -4.6685490012168884e-01</leafValues></_>
    <_>
      <internalNodes>
        0 -1 9856 -3.4083866921719164e-05</internalNodes>
      <leafValues>
        -1. 5.1660251617431641e-01</leafValues></_>
    <_>
      <internalNodes>
        0 -1 9856 2.0130444681853987e-05</internalNodes>
      <leafValues>
        5.1478296518325806e-01 -1.</leafValues></_></weakClassifiers></stage1>
</opencv_storage>
