<?xml version="1.0"?>
<opencv_storage>
<cascade>
  <stageType>BOOST</stageType>
  <featureType>HAAR</featureType>
  <height>20</height>
  <width>20</width>
  <stageParams>
    <boostType>GAB</boostType>
    <minHitRate>9.9900001287460327e-01</minHitRate>
    <maxFalseAlarm>5.0000000745058060e-02</maxFalseAlarm>
    <weightTrimRate>9.4999999999999996e-01</weightTrimRate>
    <maxDepth>1</maxDepth>
    <maxWeakCount>100</maxWeakCount></stageParams>
  <featureParams>
    <maxCatCount>0</maxCatCount>
    <featSize>1</featSize>
    <mode>ALL</mode></featureParams>
  <stageNum>3</stageNum>
  <stages>
    <!-- stage 0 -->
    <_>
      <maxWeakCount>8</maxWeakCount>
      <stageThreshold>-1.1836377382278442e+00</stageThreshold>
      <weakClassifiers>
        <_>
          <internalNodes>
            0 -1 12 1.3594708405435085e-02</internalNodes>
          <leafValues>
            -6.5517240762710571e-01 8.5270428657531738e-01</leafValues></_>
        <_>
          <internalNodes>
            0 -1 3 3.6794617772102356e-03</internalNodes>
          <leafValues>
            -5.4552268981933594e-01 9.4345289468765259e-01</leafValues></_>
        <_>
          <internalNodes>
            0 -1 0 2.1625988185405731e-02</internalNodes>
          <leafValues>
            -8.4608638286590576e-01 6.0800611972808838e-01</leafValues></_>
        <_>
          <internalNodes>
            0 -1 6 -2.1357417106628418e-02</internalNodes>
          <leafValues>
            7.6212054491043091e-01 -6.4323049783706665e-01</leafValues></_>
        <_>
          <internalNodes>
            0 -1 13 -6.4798602834343910e-03</internalNodes>
          <leafValues>
            9.9425071477890015e-01 -4.8328506946563721e-01</leafValues></_>
        <_>
          <internalNodes>
            0 -1 7 4.1133165359497070e-03</internalNodes>
          <leafValues>
            -4.7530660033226013e-01 9.3710696697235107e-01</leafValues></_>
        <_>
          <internalNodes>
            0 -1 1 -1.8415685190120712e-05</internalNodes>
          <leafValues>
            -1. 5.2074986696243286e-01</leafValues></_>
        <_>
          <internalNodes>
            0 -1 2 2.1476082110893913e-05</internalNodes>
          <leafValues>
            4.9012356996536255e-01 -1.</leafValues></_></weakClassifiers></_>
    <!-- stage 1 -->
    <_>
      <maxWeakCount>5</maxWeakCount>
      <stageThreshold>-1.5695461630821228e-01</stageThreshold>
      <weakClassifiers>
        <_>
          <internalNodes>
            0 -1 14 3.0975106637924910e-03</internalNodes>
          <leafValues>
            -6.1231279373168945e-01 9.2230576276779175e-01</leafValues></_>
        <_>
          <internalNodes>
            0 -1 4 -5.1943687722086906e-03</internalNodes>
          <leafValues>
            9.8218822479248047e-01 -5.1448506116867065e-01</leafValues></_>
        <_>
          <internalNodes>
            0 -1 18 2.3807104676961899e-02</internalNodes>
          <leafValues>
            -9.2395383119583130e-01 5.5686187744140625e-01</leafValues></_>
        <_>
          <internalNodes>
            0 -1 5 4.6462342143058777e-03</internalNodes>
          <leafValues>
            -4.7902160882949829e-01 9.3253660202026367e-01</leafValues></_>
        <_>
          <internalNodes>
            0 -1 17 3.8225764874368906e-03</internalNodes>
          <leafValues>
            -5.1955521106719971e-01 9.8670506477355957e-01</leafValues></_></weakClassifiers></_>
    <!-- stage 2 -->
    <_>
      <maxWeakCount>8</maxWeakCount>
      <stageThreshold>3.0682262778282166e-01</stageThreshold>
      <weakClassifiers>
        <_>
          <internalNodes>
            0 -1 10 -1.6624834388494492e-02</internalNodes>
          <leafValues>
            -9.8447203636169434e-01 4.6755161881446838e-01</leafValues></_>
        <_>
          <internalNodes>
            0 -1 15 -6.1827544122934341e-03</internalNodes>
          <leafValues>
            9.0232169628143311e-01 -5.5175042152404785e-01</leafValues></_>
        <_>
          <internalNodes>
            0 -1 11 2.2533282637596130e-02</internalNodes>
          <leafValues>
            5.3913277387619019e-01 -9.3288350105285645e-01</leafValues></_>
        <_>
          <internalNodes>
            0 -1 16 4.1741197928786278e-03</internalNodes>
          <leafValues>
            -5.6950813531875610e-01 8.3465492725372314e-01</leafValues></_>
        <_>
          <internalNodes>
            0 -1 20 -5.3921099752187729e-02</internalNodes>
          <leafValues>
            9.7967600822448730e-01 -4.3402904272079468e-01</leafValues></_>
        <_>
          <internalNodes>
            0 -1 19 -5.1884158892789856e-05</internalNodes>
          <leafValues>
            -9.9602210521697998e-01 4.8683783411979675e-01</leafValues></_>
        <_>
          <internalNodes>
            0 -1 8 4.5077521353960037e-03</internalNodes>
          <leafValues>
            -5.2402234077453613e-01 9.4872915744781494e-01</leafValues></_>
        <_>
          <internalNodes>
            0 -1 9 -2.5160264223814011e-02</internalNodes>
          <leafValues>
            9.9357956647872925e-01 -4.5324152708053589e-01</leafValues></_></weakClassifiers></_></stages>
  <features>
    <_>
      <rects>
        <_>
          0 15 20 5 -1.</_>
        <_>
          5 15 10 5 2.</_></rects>
      <tilted>0</tilted></_>
    <_>
      <rects>
        <_>
          0 18 1 2 -1.</_>
        <_>
          0 19 1 1 2.</_></rects>
      <tilted>0</tilted></_>
    <_>
      <rects>
        <_>
          0 18 2 2 -1.</_>
        <_>
          0 19 2 1 2.</_></rects>
      <tilted>0</tilted></_>
    <_>
      <rects>
        <_>
          6 8 3 1 -1.</_>
        <_>
          7 8 1 1 3.</_></rects>
      <tilted>0</tilted></_>
    <_>
      <rects>
        <_>
          6 10 1 3 -1.</_>
        <_>
          6 11 1 1 3.</_></rects>
      <tilted>0</tilted></_>
    <_>
      <rects>
        <_>
          7 6 3 1 -1.</_>
        <_>
          8 6 1 1 3.</_></rects>
      <tilted>0</tilted></_>
    <_>
      <rects>
        <_>
          7 9 6 3 -1.</_>
        <_>
          9 10 2 1 9.</_></rects>
      <tilted>0</tilted></_>
    <_>
      <rects>
        <_>
          7 13 3 1 -1.</_>
        <_>
          8 13 1 1 3.</_></rects>
      <tilted>0</tilted></_>
    <_>
      <rects>
        <_>
          8 11 2 2 -1.</_>
        <_>
          8 11 1 1 2.</_>
        <_>
          9 12 1 1 2.</_></rects>
      <tilted>0</tilted></_>
    <_>
      <rects>
        <_>
          8 12 3 4 -1.</_>
        <_>
          9 12 1 4 3.</_></rects>
      <tilted>0</tilted></_>
    <_>
      <rects>
        <_>
          9 2 8 6 -1.</_>
        <_>
          9 2 4 6 2.</_></rects>
      <tilted>1</tilted></_>
    <_>
      <rects>
        <_>
          9 5 4 8 -1.</_>
        <_>
          9 5 4 4 2.</_></rects>
      <tilted>1</tilted></_>
    <_>
      <rects>
        <_>
          9 7 3 3 -1.</_>
        <_>
          10 8 1 1 9.</_></rects>
      <tilted>0</tilted></_>
    <_>
      <rects>
        <_>
          9 13 3 1 -1.</_>
        <_>
          10 13 1 1 3.</_></rects>
      <tilted>0</tilted></_>
    <_>
      <rects>
        <_>
          10 10 1 3 -1.</_>
        <_>
          10 11 1 1 3.</_></rects>
      <tilted>0</tilted></_>
    <_>
      <rects>
        <_>
          11 6 3 1 -1.</_>
        <_>
          12 6 1 1 3.</_></rects>
      <tilted>0</tilted></_>
    <_>
      <rects>
        <_>
          11 11 3 1 -1.</_>
        <_>
          12 11 1 1 3.</_></rects>
      <tilted>0</tilted></_>
    <_>
      <rects>
        <_>
          11 11 2 2 -1.</_>
        <_>
          11 11 1 1 2.</_>
        <_>
          12 12 1 1 2.</_></rects>
      <tilted>0</tilted></_>
    <_>
      <rects>
        <_>
          14 0 6 20 -1.</_>
        <_>
          14 5 6 10 2.</_></rects>
      <tilted>0</tilted></_>
    <_>
      <rects>
        <_>
          17 0 2 2 -1.</_>
        <_>
          17 1 2 1 2.</_></rects>
      <tilted>0</tilted></_>
    <_>
      <rects>
        <_>
          17 1 3 15 -1.</_>
        <_>
          18 2 1 15 3.</_></rects>
      <tilted>1</tilted></_></features></cascade>
</opencv_storage>
