<?xml version="1.0"?>
<opencv_storage>
<stage0>
  <maxWeakCount>8</maxWeakCount>
  <stageThreshold>-1.1836377382278442e+00</stageThreshold>
  <weakClassifiers>
    <_>
      <internalNodes>
        0 -1 84176 1.3594708405435085e-02</internalNodes>
      <leafValues>
        -6.5517240762710571e-01 8.5270428657531738e-01</leafValues></_>
    <_>
      <internalNodes>
        0 -1 61276 3.6794617772102356e-03</internalNodes>
      <leafValues>
        -5.4552268981933594e-01 9.4345289468765259e-01</leafValues></_>
    <_>
      <internalNodes>
        0 -1 9444 2.1625988185405731e-02</internalNodes>
      <leafValues>
        -8.4608638286590576e-01 6.0800611972808838e-01</leafValues></_>
    <_>
      <internalNodes>
        0 -1 69940 -2.1357417106628418e-02</internalNodes>
      <leafValues>
        7.6212054491043091e-01 -6.4323049783706665e-01</leafValues></_>
    <_>
      <internalNodes>
        0 -1 86239 -6.4798602834343910e-03</internalNodes>
      <leafValues>
        9.9425071477890015e-01 -4.8328506946563721e-01</leafValues></_>
    <_>
      <internalNodes>
        0 -1 71252 4.1133165359497070e-03</internalNodes>
      <leafValues>
        -4.7530660033226013e-01 9.3710696697235107e-01</leafValues></_>
    <_>
      <internalNodes>
        0 -1 9856 -1.8415685190120712e-05</internalNodes>
      <leafValues>
        -1. 5.2074986696243286e-01</leafValues></_>
    <_>
      <internalNodes>
        0 -1 9864 2.1476082110893913e-05</internalNodes>
      <leafValues>
        4.9012356996536255e-01 -1.</leafValues></_></weakClassifiers></stage0>
</opencv_storage>
